<?xml version="1.0"?>
<opencv_storage>
<cascade>
  <stageType>BOOST</stageType>
  <featureType>HAAR</featureType>
  <height>20</height>
  <width>20</width>
  <stageParams>
    <boostType>GAB</boostType>
    <minHitRate>9.9989998340606689e-001</minHitRate>
    <maxFalseAlarm>5.0000000000000000e-001</maxFalseAlarm>
    <weightTrimRate>9.4999999999999996e-001</weightTrimRate>
    <maxDepth>1</maxDepth>
    <maxWeakCount>100</maxWeakCount></stageParams>
  <featureParams>
    <maxCatCount>0</maxCatCount>
    <featSize>1</featSize>
    <mode>BASIC</mode></featureParams>
  <stageNum>12</stageNum>
  <stages>
    <!-- stage 0 -->
    <_>
      <maxWeakCount>2</maxWeakCount>
      <stageThreshold>-4.1059109568595886e-001</stageThreshold>
      <weakClassifiers>
        <_>
          <internalNodes>
            0 -1 18 5.2801460027694702e-002</internalNodes>
          <leafValues>
            -9.9601596593856812e-001 6.0638296604156494e-001</leafValues></_>
        <_>
          <internalNodes>
            0 -1 16 -3.5006724298000336e-002</internalNodes>
          <leafValues>
            5.8542484045028687e-001 -9.3839293718338013e-001</leafValues></_></weakClassifiers></_>
    <!-- stage 1 -->
    <_>
      <maxWeakCount>2</maxWeakCount>
      <stageThreshold>-1.0552018880844116e-001</stageThreshold>
      <weakClassifiers>
        <_>
          <internalNodes>
            0 -1 1 -1.3578885793685913e-001</internalNodes>
          <leafValues>
            6.3522011041641235e-001 -7.8268253803253174e-001</leafValues></_>
        <_>
          <internalNodes>
            0 -1 22 3.8486771285533905e-002</internalNodes>
          <leafValues>
            -6.5568125247955322e-001 6.7716234922409058e-001</leafValues></_></weakClassifiers></_>
    <!-- stage 2 -->
    <_>
      <maxWeakCount>2</maxWeakCount>
      <stageThreshold>-3.8453578948974609e-001</stageThreshold>
      <weakClassifiers>
        <_>
          <internalNodes>
            0 -1 19 -1.0124748945236206e-001</internalNodes>
          <leafValues>
            3.6532506346702576e-001 -9.3809521198272705e-001</leafValues></_>
        <_>
          <internalNodes>
            0 -1 40 8.0491214990615845e-002</internalNodes>
          <leafValues>
            -7.4912208318710327e-001 5.5355942249298096e-001</leafValues></_></weakClassifiers></_>
    <!-- stage 3 -->
    <_>
      <maxWeakCount>3</maxWeakCount>
      <stageThreshold>-3.0447900295257568e-001</stageThreshold>
      <weakClassifiers>
        <_>
          <internalNodes>
            0 -1 23 -4.6107437461614609e-002</internalNodes>
          <leafValues>
            3.4681183099746704e-001 -9.0070921182632446e-001</leafValues></_>
        <_>
          <internalNodes>
            0 -1 2 -1.2332059442996979e-001</internalNodes>
          <leafValues>
            2.7424269914627075e-001 -9.4214087724685669e-001</leafValues></_>
        <_>
          <internalNodes>
            0 -1 9 -1.3185605406761169e-001</internalNodes>
          <leafValues>
            3.2198750972747803e-001 -9.0622311830520630e-001</leafValues></_></weakClassifiers></_>
    <!-- stage 4 -->
    <_>
      <maxWeakCount>5</maxWeakCount>
      <stageThreshold>-7.6712673902511597e-001</stageThreshold>
      <weakClassifiers>
        <_>
          <internalNodes>
            0 -1 14 -6.0927473008632660e-002</internalNodes>
          <leafValues>
            2.6239067316055298e-001 -8.8947367668151855e-001</leafValues></_>
        <_>
          <internalNodes>
            0 -1 25 8.2080792635679245e-003</internalNodes>
          <leafValues>
            -8.7602168321609497e-001 2.7432018518447876e-001</leafValues></_>
        <_>
          <internalNodes>
            0 -1 42 -1.9565161317586899e-002</internalNodes>
          <leafValues>
            2.4084568023681641e-001 -9.5137763023376465e-001</leafValues></_>
        <_>
          <internalNodes>
            0 -1 6 -1.0178859531879425e-001</internalNodes>
          <leafValues>
            3.9469021558761597e-001 -6.6956293582916260e-001</leafValues></_>
        <_>
          <internalNodes>
            0 -1 13 1.7058504745364189e-002</internalNodes>
          <leafValues>
            -7.1623003482818604e-001 4.0319171547889709e-001</leafValues></_></weakClassifiers></_>
    <!-- stage 5 -->
    <_>
      <maxWeakCount>6</maxWeakCount>
      <stageThreshold>-2.7395778894424438e-001</stageThreshold>
      <weakClassifiers>
        <_>
          <internalNodes>
            0 -1 34 1.7516126856207848e-002</internalNodes>
          <leafValues>
            -5.5589121580123901e-001 5.1980197429656982e-001</leafValues></_>
        <_>
          <internalNodes>
            0 -1 38 5.0224319100379944e-002</internalNodes>
          <leafValues>
            -4.1431620717048645e-001 8.8565772771835327e-001</leafValues></_>
        <_>
          <internalNodes>
            0 -1 44 2.1562254987657070e-003</internalNodes>
          <leafValues>
            -9.5410871505737305e-001 3.2186648249626160e-001</leafValues></_>
        <_>
          <internalNodes>
            0 -1 36 1.3489514589309692e-001</internalNodes>
          <leafValues>
            -4.7190260887145996e-001 6.6566777229309082e-001</leafValues></_>
        <_>
          <internalNodes>
            0 -1 41 -6.9096935912966728e-003</internalNodes>
          <leafValues>
            -9.7174847126007080e-001 3.0380496382713318e-001</leafValues></_>
        <_>
          <internalNodes>
            0 -1 11 -1.1076720803976059e-001</internalNodes>
          <leafValues>
            7.4276280403137207e-001 -4.4845694303512573e-001</leafValues></_></weakClassifiers></_>
    <!-- stage 6 -->
    <_>
      <maxWeakCount>4</maxWeakCount>
      <stageThreshold>-9.9101275205612183e-001</stageThreshold>
      <weakClassifiers>
        <_>
          <internalNodes>
            0 -1 0 -1.0503683984279633e-001</internalNodes>
          <leafValues>
            3.5587188601493835e-001 -7.1031743288040161e-001</leafValues></_>
        <_>
          <internalNodes>
            0 -1 3 -1.5432208776473999e-001</internalNodes>
          <leafValues>
            2.9925176501274109e-001 -9.2035561800003052e-001</leafValues></_>
        <_>
          <internalNodes>
            0 -1 20 6.2246039509773254e-002</internalNodes>
          <leafValues>
            -7.3243790864944458e-001 3.5621288418769836e-001</leafValues></_>
        <_>
          <internalNodes>
            0 -1 7 7.0055113174021244e-003</internalNodes>
          <leafValues>
            2.8344744443893433e-001 -1.</leafValues></_></weakClassifiers></_>
    <!-- stage 7 -->
    <_>
      <maxWeakCount>6</maxWeakCount>
      <stageThreshold>-6.8734812736511230e-001</stageThreshold>
      <weakClassifiers>
        <_>
          <internalNodes>
            0 -1 12 -3.7233918905258179e-002</internalNodes>
          <leafValues>
            6.9105690717697144e-001 -4.0000000596046448e-001</leafValues></_>
        <_>
          <internalNodes>
            0 -1 39 1.6647879034280777e-002</internalNodes>
          <leafValues>
            2.6420229673385620e-001 -9.6876925230026245e-001</leafValues></_>
        <_>
          <internalNodes>
            0 -1 27 -6.4277872443199158e-003</internalNodes>
          <leafValues>
            -8.0647456645965576e-001 2.4570217728614807e-001</leafValues></_>
        <_>
          <internalNodes>
            0 -1 32 6.6993441432714462e-003</internalNodes>
          <leafValues>
            2.0857292413711548e-001 -9.2931205034255981e-001</leafValues></_>
        <_>
          <internalNodes>
            0 -1 33 -2.0856127142906189e-002</internalNodes>
          <leafValues>
            9.5006829500198364e-001 -2.7835169434547424e-001</leafValues></_>
        <_>
          <internalNodes>
            0 -1 37 2.5313407182693481e-002</internalNodes>
          <leafValues>
            -7.1409672498703003e-001 5.0549769401550293e-001</leafValues></_></weakClassifiers></_>
    <!-- stage 8 -->
    <_>
      <maxWeakCount>3</maxWeakCount>
      <stageThreshold>-4.6244320273399353e-001</stageThreshold>
      <weakClassifiers>
        <_>
          <internalNodes>
            0 -1 17 2.8669118881225586e-002</internalNodes>
          <leafValues>
            -7.0491802692413330e-001 3.2179930806159973e-001</leafValues></_>
        <_>
          <internalNodes>
            0 -1 8 -2.2332599759101868e-001</internalNodes>
          <leafValues>
            6.5223211050033569e-001 -4.3204960227012634e-001</leafValues></_>
        <_>
          <internalNodes>
            0 -1 43 4.8425517976284027e-002</internalNodes>
          <leafValues>
            -3.5219293832778931e-001 7.2601330280303955e-001</leafValues></_></weakClassifiers></_>
    <!-- stage 9 -->
    <_>
      <maxWeakCount>5</maxWeakCount>
      <stageThreshold>-7.2997713088989258e-001</stageThreshold>
      <weakClassifiers>
        <_>
          <internalNodes>
            0 -1 35 -1.1144516058266163e-002</internalNodes>
          <leafValues>
            -9.9190282821655273e-001 1.0622710734605789e-001</leafValues></_>
        <_>
          <internalNodes>
            0 -1 29 -1.3890443369746208e-003</internalNodes>
          <leafValues>
            2.4005816876888275e-001 -8.9349365234375000e-001</leafValues></_>
        <_>
          <internalNodes>
            0 -1 21 7.3540098965167999e-003</internalNodes>
          <leafValues>
            -3.6624437570571899e-001 7.6381659507751465e-001</leafValues></_>
        <_>
          <internalNodes>
            0 -1 24 -2.4151377379894257e-002</internalNodes>
          <leafValues>
            9.6999728679656982e-001 -2.5899517536163330e-001</leafValues></_>
        <_>
          <internalNodes>
            0 -1 30 -1.4779886230826378e-002</internalNodes>
          <leafValues>
            6.4710706472396851e-001 -4.2613568902015686e-001</leafValues></_></weakClassifiers></_>
    <!-- stage 10 -->
    <_>
      <maxWeakCount>5</maxWeakCount>
      <stageThreshold>-8.5183995962142944e-001</stageThreshold>
      <weakClassifiers>
        <_>
          <internalNodes>
            0 -1 5 -3.4124411642551422e-002</internalNodes>
          <leafValues>
            7.0312500000000000e-001 -4.1728395223617554e-001</leafValues></_>
        <_>
          <internalNodes>
            0 -1 45 5.0490684807300568e-003</internalNodes>
          <leafValues>
            2.8925207257270813e-001 -8.7587434053421021e-001</leafValues></_>
        <_>
          <internalNodes>
            0 -1 31 9.2813675291836262e-004</internalNodes>
          <leafValues>
            -1. 1.8806050717830658e-001</leafValues></_>
        <_>
          <internalNodes>
            0 -1 15 -1.4228104054927826e-001</internalNodes>
          <leafValues>
            1. -3.0198016762733459e-001</leafValues></_>
        <_>
          <internalNodes>
            0 -1 4 2.0452659577131271e-002</internalNodes>
          <leafValues>
            -6.0988843441009521e-001 5.7142436504364014e-001</leafValues></_></weakClassifiers></_>
    <!-- stage 11 -->
    <_>
      <maxWeakCount>3</maxWeakCount>
      <stageThreshold>-4.6794822812080383e-001</stageThreshold>
      <weakClassifiers>
        <_>
          <internalNodes>
            0 -1 10 -1.8986893817782402e-002</internalNodes>
          <leafValues>
            8.2545453310012817e-001 -4.8672565817832947e-001</leafValues></_>
        <_>
          <internalNodes>
            0 -1 26 8.1136589869856834e-004</internalNodes>
          <leafValues>
            3.9573267102241516e-001 -8.2869750261306763e-001</leafValues></_>
        <_>
          <internalNodes>
            0 -1 28 5.7810839265584946e-002</internalNodes>
          <leafValues>
            -3.7695524096488953e-001 1.</leafValues></_></weakClassifiers></_></stages>
  <features>
    <_>
      <rects>
        <_>
          0 0 8 18 -1.</_>
        <_>
          4 0 4 18 2.</_></rects>
      <tilted>0</tilted></_>
    <_>
      <rects>
        <_>
          0 0 10 20 -1.</_>
        <_>
          5 0 5 20 2.</_></rects>
      <tilted>0</tilted></_>
    <_>
      <rects>
        <_>
          0 2 10 18 -1.</_>
        <_>
          0 8 10 6 3.</_></rects>
      <tilted>0</tilted></_>
    <_>
      <rects>
        <_>
          0 2 13 18 -1.</_>
        <_>
          0 8 13 6 3.</_></rects>
      <tilted>0</tilted></_>
    <_>
      <rects>
        <_>
          0 2 14 3 -1.</_>
        <_>
          0 3 14 1 3.</_></rects>
      <tilted>0</tilted></_>
    <_>
      <rects>
        <_>
          0 6 8 2 -1.</_>
        <_>
          4 6 4 2 2.</_></rects>
      <tilted>0</tilted></_>
    <_>
      <rects>
        <_>
          0 11 18 5 -1.</_>
        <_>
          6 11 6 5 3.</_></rects>
      <tilted>0</tilted></_>
    <_>
      <rects>
        <_>
          0 18 6 2 -1.</_>
        <_>
          3 18 3 2 2.</_></rects>
      <tilted>0</tilted></_>
    <_>
      <rects>
        <_>
          1 0 10 20 -1.</_>
        <_>
          6 0 5 20 2.</_></rects>
      <tilted>0</tilted></_>
    <_>
      <rects>
        <_>
          1 0 18 16 -1.</_>
        <_>
          7 0 6 16 3.</_></rects>
      <tilted>0</tilted></_>
    <_>
      <rects>
        <_>
          1 6 6 2 -1.</_>
        <_>
          4 6 3 2 2.</_></rects>
      <tilted>0</tilted></_>
    <_>
      <rects>
        <_>
          2 3 15 6 -1.</_>
        <_>
          2 5 15 2 3.</_></rects>
      <tilted>0</tilted></_>
    <_>
      <rects>
        <_>
          2 6 6 6 -1.</_>
        <_>
          4 6 2 6 3.</_></rects>
      <tilted>0</tilted></_>
    <_>
      <rects>
        <_>
          3 1 5 6 -1.</_>
        <_>
          3 3 5 2 3.</_></rects>
      <tilted>0</tilted></_>
    <_>
      <rects>
        <_>
          3 2 14 9 -1.</_>
        <_>
          3 5 14 3 3.</_></rects>
      <tilted>0</tilted></_>
    <_>
      <rects>
        <_>
          3 3 10 9 -1.</_>
        <_>
          3 6 10 3 3.</_></rects>
      <tilted>0</tilted></_>
    <_>
      <rects>
        <_>
          3 3 16 4 -1.</_>
        <_>
          3 5 16 2 2.</_></rects>
      <tilted>0</tilted></_>
    <_>
      <rects>
        <_>
          3 4 5 16 -1.</_>
        <_>
          3 12 5 8 2.</_></rects>
      <tilted>0</tilted></_>
    <_>
      <rects>
        <_>
          3 12 8 8 -1.</_>
        <_>
          3 16 8 4 2.</_></rects>
      <tilted>0</tilted></_>
    <_>
      <rects>
        <_>
          4 5 13 15 -1.</_>
        <_>
          4 10 13 5 3.</_></rects>
      <tilted>0</tilted></_>
    <_>
      <rects>
        <_>
          4 14 12 6 -1.</_>
        <_>
          4 17 12 3 2.</_></rects>
      <tilted>0</tilted></_>
    <_>
      <rects>
        <_>
          5 3 3 3 -1.</_>
        <_>
          5 4 3 1 3.</_></rects>
      <tilted>0</tilted></_>
    <_>
      <rects>
        <_>
          6 0 5 6 -1.</_>
        <_>
          6 2 5 2 3.</_></rects>
      <tilted>0</tilted></_>
    <_>
      <rects>
        <_>
          6 2 8 9 -1.</_>
        <_>
          6 5 8 3 3.</_></rects>
      <tilted>0</tilted></_>
    <_>
      <rects>
        <_>
          6 3 8 3 -1.</_>
        <_>
          6 4 8 1 3.</_></rects>
      <tilted>0</tilted></_>
    <_>
      <rects>
        <_>
          6 12 1 8 -1.</_>
        <_>
          6 16 1 4 2.</_></rects>
      <tilted>0</tilted></_>
    <_>
      <rects>
        <_>
          6 13 14 6 -1.</_>
        <_>
          6 13 7 3 2.</_>
        <_>
          13 16 7 3 2.</_></rects>
      <tilted>0</tilted></_>
    <_>
      <rects>
        <_>
          7 7 10 10 -1.</_>
        <_>
          7 7 5 5 2.</_>
        <_>
          12 12 5 5 2.</_></rects>
      <tilted>0</tilted></_>
    <_>
      <rects>
        <_>
          7 7 10 7 -1.</_>
        <_>
          12 7 5 7 2.</_></rects>
      <tilted>0</tilted></_>
    <_>
      <rects>
        <_>
          7 9 5 4 -1.</_>
        <_>
          7 11 5 2 2.</_></rects>
      <tilted>0</tilted></_>
    <_>
      <rects>
        <_>
          7 10 6 6 -1.</_>
        <_>
          7 13 6 3 2.</_></rects>
      <tilted>0</tilted></_>
    <_>
      <rects>
        <_>
          7 15 12 4 -1.</_>
        <_>
          7 17 12 2 2.</_></rects>
      <tilted>0</tilted></_>
    <_>
      <rects>
        <_>
          7 18 9 2 -1.</_>
        <_>
          10 18 3 2 3.</_></rects>
      <tilted>0</tilted></_>
    <_>
      <rects>
        <_>
          8 3 6 2 -1.</_>
        <_>
          8 4 6 1 2.</_></rects>
      <tilted>0</tilted></_>
    <_>
      <rects>
        <_>
          8 4 4 6 -1.</_>
        <_>
          8 7 4 3 2.</_></rects>
      <tilted>0</tilted></_>
    <_>
      <rects>
        <_>
          10 0 8 5 -1.</_>
        <_>
          14 0 4 5 2.</_></rects>
      <tilted>0</tilted></_>
    <_>
      <rects>
        <_>
          10 0 10 14 -1.</_>
        <_>
          15 0 5 14 2.</_></rects>
      <tilted>0</tilted></_>
    <_>
      <rects>
        <_>
          10 1 6 6 -1.</_>
        <_>
          10 3 6 2 3.</_></rects>
      <tilted>0</tilted></_>
    <_>
      <rects>
        <_>
          10 2 6 6 -1.</_>
        <_>
          10 4 6 2 3.</_></rects>
      <tilted>0</tilted></_>
    <_>
      <rects>
        <_>
          11 16 9 4 -1.</_>
        <_>
          14 16 3 4 3.</_></rects>
      <tilted>0</tilted></_>
    <_>
      <rects>
        <_>
          12 0 8 20 -1.</_>
        <_>
          16 0 4 20 2.</_></rects>
      <tilted>0</tilted></_>
    <_>
      <rects>
        <_>
          12 17 8 3 -1.</_>
        <_>
          16 17 4 3 2.</_></rects>
      <tilted>0</tilted></_>
    <_>
      <rects>
        <_>
          13 2 7 18 -1.</_>
        <_>
          13 8 7 6 3.</_></rects>
      <tilted>0</tilted></_>
    <_>
      <rects>
        <_>
          13 7 6 5 -1.</_>
        <_>
          16 7 3 5 2.</_></rects>
      <tilted>0</tilted></_>
    <_>
      <rects>
        <_>
          14 12 2 8 -1.</_>
        <_>
          14 16 2 4 2.</_></rects>
      <tilted>0</tilted></_>
    <_>
      <rects>
        <_>
          15 13 5 2 -1.</_>
        <_>
          15 14 5 1 2.</_></rects>
      <tilted>0</tilted></_></features></cascade>
</opencv_storage>
